digraph Tree {
node [shape=box, style="filled, rounded", color="black", fontname=helvetica] ;
edge [fontname=helvetica] ;
0 [label="sex <= 0.5\ngini = 0.5\nsamples = 148\nvalue = [113, 124]\nclass = versicolor", fillcolor="#399de517"] ;
1 [label="thal <= 5.0\ngini = 0.34\nsamples = 45\nvalue = [57, 16]\nclass = setosa", fillcolor="#e58139b7"] ;
0 -> 1 [labeldistance=2.5, labelangle=45, headlabel="True"] ;
2 [label="gini = 0.26\nsamples = 38\nvalue = [55, 10]\nclass = setosa", fillcolor="#e58139d1"] ;
1 -> 2 ;
3 [label="gini = 0.38\nsamples = 7\nvalue = [2, 6]\nclass = versicolor", fillcolor="#399de5aa"] ;
1 -> 3 ;
4 [label="max_heart_rate <= 159.5\ngini = 0.45\nsamples = 103\nvalue = [56, 108]\nclass = versicolor", fillcolor="#399de57b"] ;
0 -> 4 [labeldistance=2.5, labelangle=-45, headlabel="False"] ;
5 [label="gini = 0.32\nsamples = 65\nvalue = [20, 80]\nclass = versicolor", fillcolor="#399de5bf"] ;
4 -> 5 ;
6 [label="gini = 0.49\nsamples = 38\nvalue = [36, 28]\nclass = setosa", fillcolor="#e5813939"] ;
4 -> 6 ;
}