digraph Tree {
node [shape=box, style="filled, rounded", color="black", fontname=helvetica] ;
edge [fontname=helvetica] ;
0 [label="chest_pain <= 3.5\ngini = 0.5\nsamples = 169\nvalue = [141, 126]\nclass = setosa", fillcolor="#e581391b"] ;
1 [label="thal <= 6.5\ngini = 0.34\nsamples = 85\nvalue = [106, 29]\nclass = setosa", fillcolor="#e58139b9"] ;
0 -> 1 [labeldistance=2.5, labelangle=45, headlabel="True"] ;
2 [label="gini = 0.23\nsamples = 65\nvalue = [93, 14]\nclass = setosa", fillcolor="#e58139d9"] ;
1 -> 2 ;
3 [label="gini = 0.5\nsamples = 20\nvalue = [13, 15]\nclass = versicolor", fillcolor="#399de522"] ;
1 -> 3 ;
4 [label="max_heart_rate <= 146.5\ngini = 0.39\nsamples = 84\nvalue = [35, 97]\nclass = versicolor", fillcolor="#399de5a3"] ;
0 -> 4 [labeldistance=2.5, labelangle=-45, headlabel="False"] ;
5 [label="gini = 0.17\nsamples = 47\nvalue = [7, 70]\nclass = versicolor", fillcolor="#399de5e6"] ;
4 -> 5 ;
6 [label="gini = 0.5\nsamples = 37\nvalue = [28, 27]\nclass = setosa", fillcolor="#e5813909"] ;
4 -> 6 ;
}