digraph Tree {
node [shape=box, style="filled, rounded", color="black", fontname=helvetica] ;
edge [fontname=helvetica] ;
0 [label="chest_pain <= 3.5\ngini = 0.49\nsamples = 148\nvalue = [131, 106]\nclass = setosa", fillcolor="#e5813931"] ;
1 [label="thal <= 6.5\ngini = 0.32\nsamples = 74\nvalue = [93, 23]\nclass = setosa", fillcolor="#e58139c0"] ;
0 -> 1 [labeldistance=2.5, labelangle=45, headlabel="True"] ;
2 [label="gini = 0.21\nsamples = 56\nvalue = [79, 11]\nclass = setosa", fillcolor="#e58139db"] ;
1 -> 2 ;
3 [label="gini = 0.5\nsamples = 18\nvalue = [14, 12]\nclass = setosa", fillcolor="#e5813924"] ;
1 -> 3 ;
4 [label="max_heart_rate <= 146.5\ngini = 0.43\nsamples = 74\nvalue = [38, 83]\nclass = versicolor", fillcolor="#399de58a"] ;
0 -> 4 [labeldistance=2.5, labelangle=-45, headlabel="False"] ;
5 [label="gini = 0.25\nsamples = 42\nvalue = [9, 53]\nclass = versicolor", fillcolor="#399de5d4"] ;
4 -> 5 ;
6 [label="gini = 0.5\nsamples = 32\nvalue = [29, 30]\nclass = versicolor", fillcolor="#399de508"] ;
4 -> 6 ;
}